Language model created by QuickLM on Mon Dec 10 20:41:46 EST 2018
Copyright (c) 1996-2010 Carnegie Mellon University and Alexander I. Rudnicky

The model is in standard ARPA format, designed by Doug Paul while he was at MITRE.

The code that was used to produce this language model is available in Open Source.
Please visit http://www.speech.cs.cmu.edu/tools/ for more information

The (fixed) discount mass is 0.5. The backoffs are computed using the ratio method.
This model based on a corpus of 4 sentences and 6 words

\data\
ngram 1=6
ngram 2=8
ngram 3=4

\1-grams:
-0.7782 </s> -0.3010
-0.7782 <s> -0.2218
-1.3802 下一个页面 -0.2218
-1.3802 设置界面 -0.2218
-1.3802 设置页面 -0.2218
-1.3802 ﻿下一个界面 -0.2218

\2-grams:
-0.9031 <s> 下一个页面 0.0000
-0.9031 <s> 设置界面 0.0000
-0.9031 <s> 设置页面 0.0000
-0.9031 <s> ﻿下一个界面 0.0000
-0.3010 下一个页面 </s> -0.3010
-0.3010 设置界面 </s> -0.3010
-0.3010 设置页面 </s> -0.3010
-0.3010 ﻿下一个界面 </s> -0.3010

\3-grams:
-0.3010 <s> 下一个页面 </s>
-0.3010 <s> 设置界面 </s>
-0.3010 <s> 设置页面 </s>
-0.3010 <s> ﻿下一个界面 </s>

\end\
